8 100
e -0.0029722082 0.0016096438 -0.0012381747 0.0028252283 -0.0045058317 -0.001815885 -0.001117921 0.0016963629 0.0014662478 0.0012356688 0.002873957 -0.0023991254 0.0014291554 -0.0029284626 0.0007451198 0.0036457335 -0.004879746 0.004743424 -0.004436733 0.0009919052 0.0018494494 0.00415931 0.0028232213 -0.0016510304 -0.00061659457 0.0011172892 -0.0010211611 0.00042143205 6.162069e-05 -0.0036512136 0.0018066824 0.0031049137 -0.0009314302 0.004740301 -0.0031274115 0.004253159 0.003359923 -0.0024212387 0.00038787132 -0.0036869277 0.0023869586 0.0005018813 0.004413646 -0.0023861998 -0.004335232 0.0010063819 -0.0027597686 0.00090374745 -0.001430995 0.004024892 -0.0034541918 -0.001170289 0.0015829669 -0.0037386639 -0.001370175 -0.0047233477 -0.0014508965 0.0027539544 -0.003345044 -0.0021616744 -0.0037590745 -0.002048103 0.004046038 0.00043734364 -0.0008916764 -0.0034747177 0.00026718335 -0.0029560484 0.0010742141 0.004898984 0.0036102494 0.0016437296 0.0003804145 -0.0038322746 -0.0009232398 0.0013172522 -0.00498011 0.0022820544 0.002873608 0.0026005118 0.0037477913 -0.0013479159 -0.003977894 0.0025077288 -0.0016510593 -0.0030593174 0.0009344195 0.0039211856 0.0028086684 -0.0037777985 0.0010874288 -0.0002300876 -0.0018115998 -7.5431286e-05 -0.0026652566 -0.0048131193 -0.0021452445 0.0049119643 0.004353388 0.0038083342
r 0.003213408 -0.00033491873 0.0024672705 0.004769501 0.0006645168 0.0039002893 -0.0005915728 -0.0019216737 -0.0039097215 -0.0016465372 -0.0032711157 0.0015669223 -0.0046637133 0.004695748 -0.002137325 -0.0013391423 0.0045681256 -0.0042374255 -0.0038546969 0.0020410179 -0.0016734629 0.0033477 -0.0013842942 -0.0049082064 0.0035304227 0.0037959511 -0.0046430267 -0.0036257675 -0.0049831844 -0.0010827346 -7.3173346e-06 0.004259032 0.0006952878 -0.004386829 0.0039604316 -0.0011629818 -0.003239698 -0.0011185139 -0.002648433 0.0028322712 -0.0034773059 0.0036681376 0.0022078338 0.0043478976 0.0044552637 0.0040437696 0.0017679967 -0.0044826046 -0.0009074081 0.0019365947 -0.00299817 -0.0037533322 0.0023347463 -0.0034501562 0.0047123064 -0.00033916242 -0.0043686316 -0.0033526025 0.0030763089 0.0018187311 0.00059407443 -0.0039997078 -0.00041093613 -0.00080446526 -0.0048746523 0.0017644718 0.00096966105 -0.0035729995 -0.0033578265 0.003155356 -0.0024090114 0.0030624792 -0.0012163424 0.0033552316 0.0042710784 -0.004164718 0.0029119807 0.0038250121 -0.0013772027 -0.0044714184 -0.0040085795 0.0004788349 0.0017449859 -0.0026430106 0.000456005 -0.002647683 0.004373684 0.0016151505 -0.003989584 0.0012118095 0.0023171594 -0.00027893487 0.002964087 0.0018376973 -0.0037683796 -0.0020201558 0.0039043045 -0.0020655822 -0.0025391013 0.003351573
t 0.004122082 0.0028070183 -0.004125906 -0.0013618793 -0.0018693528 0.0021178373 0.002463516 -0.0011837238 -0.0018214325 0.0037469761 0.0012939743 0.0038329023 0.0009962193 0.0048821117 4.81063e-05 0.0038557376 0.0021174212 -0.0035884853 -0.0017304457 0.0007535515 -0.0041194013 -0.000681124 0.0040402557 0.00027255644 -0.0010418918 -0.0014121777 -0.0039193775 -0.0047331047 0.0047717993 -0.004298009 0.0048642782 0.0030002985 -0.0021456117 0.0010614846 -0.0027267155 -0.0004236167 8.7132204e-05 0.0018397892 0.000534408 0.0015704271 0.0006065979 -0.0011852208 -0.0027006075 0.0002220286 -0.0019725822 -0.002740734 -0.0014769258 0.00016190308 -0.0017769817 0.00061082543 0.0003053095 -0.0008585316 -0.0013279729 0.0023497762 -0.002410951 0.0049630376 -0.0024238126 -0.0027461012 0.0006964437 0.0043927473 0.0019767697 0.0007805819 -0.000959099 0.004142367 0.0032616374 -0.0034110271 0.0019478103 0.0016888616 0.0030483988 -0.0002933505 0.0043503195 -0.0033661549 0.0027887796 0.0002795997 0.0031019032 -0.0039405986 -0.0005184248 -0.0007826032 0.0041560717 0.0039247996 -0.0014933974 -0.0027294562 0.004158451 0.0020620278 -0.0034059486 0.0047856513 0.002491031 -0.0019297211 0.0010795861 0.002561098 -0.0006349143 0.0011975314 -0.003046668 -0.0024547607 -0.0032095914 -0.002372898 0.0049024336 0.0030057447 0.0008534221 0.004140751
o 0.0038602203 -0.00045712423 -0.0024920267 0.0019158602 0.0030409582 -0.0047341892 0.0046335477 0.0032102554 0.0047829337 -0.001174007 0.001961795 0.004081748 -0.0040959776 0.0028223554 0.0045558484 -0.0033023758 -0.0039472566 0.002291008 -0.0020557158 -0.0027304362 0.004849259 -0.0025865133 0.00084656803 0.0022774576 0.0023841802 0.0038698793 0.00076538214 -0.0011931133 -0.0014794176 -0.0020990153 -0.00421533 -0.00029611532 0.0034014315 0.0037776907 -0.004674421 -0.0028688759 0.003602071 -0.001619706 -0.0042516585 0.004564569 -0.0036138983 -0.00015218128 0.0026700753 0.000111171335 -0.004761098 0.003356939 0.004160618 0.0024590092 -0.0015797954 0.0010168984 -0.0048338324 0.00022117197 -0.0020943747 -0.003324808 -0.0022235713 0.0008333458 -0.0033337073 0.0043427404 -0.002292735 0.00015198505 0.0029762469 -0.0007720024 -0.003406391 0.0007624798 -0.0037687726 -0.0018484982 -0.0018748542 -0.00025470628 -0.0005677235 -0.0020144056 -0.0042922823 -0.0015621707 0.0044275527 -0.0042281933 0.002084113 -0.000485393 0.0047667837 -0.0013600527 -0.0016103848 0.000901649 0.0041237664 -0.0025902488 -0.003683357 -0.0045811688 -0.0027042725 0.0003120387 0.0008477199 -0.0002650577 0.002740755 0.0047382223 -0.0048540374 -0.0027728127 -0.0039617918 0.0045147245 -0.0011156561 0.001059599 0.00074306113 0.0047702207 0.0036177759 0.002575003
a -0.0038002948 0.0032828762 -0.0036081655 -0.0040400606 -0.0038668786 0.0023868317 -0.0037891273 0.0020867137 0.0030669493 0.004596256 0.0041924915 -0.0037538777 -0.0049580117 -0.002076269 -0.00083494204 0.002161295 -0.0010137676 0.0014744946 0.004255598 0.0032749197 0.0022477328 0.0017228229 -0.0049579125 0.0012267206 0.001412392 0.004921859 -0.0014506631 0.004823334 0.0004992899 0.0020003004 -0.00073963526 -0.004651492 -0.001181793 0.0031615053 0.0043578567 0.0042817844 0.0005219032 -0.002529072 0.0042742495 -0.003524143 0.0026899485 -0.002433708 0.0048322068 0.00031573634 -0.00019510265 0.0017723381 0.0038668243 -0.002032775 -0.0048986077 -2.5782232e-05 0.00084608456 -0.0045116236 0.001534725 -0.004190251 -0.0032867563 0.0037274908 0.0045231073 0.004054914 0.0012372469 -0.004332494 -0.0033295082 0.0035971855 0.0021249931 -0.0043744217 0.0034570599 0.0016551025 0.0045887344 -0.0014674021 -0.0008571028 0.0031031773 0.0018504501 0.0031325226 -0.0045339237 -0.0017449843 0.0032738922 -0.00087415846 -0.0003763329 0.0034748719 0.0045938184 0.0009975116 0.0013343904 0.002611088 0.0014434528 0.0020922192 0.0028799258 0.0044898046 4.4942804e-05 -0.002794786 -0.00091689394 -0.004629961 0.0015211203 0.0034228496 -0.0013938393 0.0011704756 0.0024727685 0.0018027036 -0.0036037914 -0.0030947288 0.0049192547 0.002083241
s -5.143134e-05 -0.0017837044 0.0018615711 0.0048980042 0.0013146102 -0.0021569994 -0.0015770515 0.001933047 0.001118232 -0.0023672357 0.003825455 -0.0026492127 -0.0009832727 -0.0025346049 -0.00413297 -0.0027814838 -0.0018208488 -0.000729044 -0.00011088275 0.0033680173 -0.0016114176 0.0019099704 0.00039368603 0.0026875031 -0.0013445795 -0.0033309706 -0.0045255446 -0.0032415255 0.0014301052 0.0047076438 -0.0007854863 -0.0033763354 -0.00034763114 0.0038743685 0.0024379943 -0.00036180814 -0.004788499 -0.0037154846 0.001955271 -0.0004471772 0.004034511 0.0011324221 -0.0012735327 0.0017203154 0.0026600142 -0.0023448474 0.0042561097 0.0020819325 -0.0006171149 0.0028776333 0.0045344424 0.0011567109 0.0018099312 0.0019300067 0.0012359326 -0.0017030461 -0.0010892058 -2.8626884e-05 0.0026437957 0.0032259587 -0.00043858643 0.0013416001 -0.0034101943 0.003052294 0.0020296257 0.0033002708 -0.004223105 0.001403909 0.0033229527 -0.00095528306 0.00072962884 0.003201343 -0.0013015856 -0.0003617821 -0.0029464068 0.0032003014 -0.0014817232 0.003508979 -0.0010230513 -0.0018129206 0.002481938 0.0033709256 0.00051007787 -0.000826714 -0.0014704007 -0.004200563 0.0004683332 0.0034868668 -0.004756901 0.0037888666 -0.00013586254 0.0046153613 -0.00257043 -0.0010056293 -0.0030627863 0.0024091778 -0.003891351 0.004280306 -0.00092118623 0.004777582
l -0.0040141223 -0.0020211665 -0.002043085 -0.001627969 -0.003806486 -0.0042421953 -0.00043271118 -0.004076908 0.002717314 -0.0009082478 -0.0023152845 -0.004050505 0.004296484 0.0018116748 -0.0034463042 0.004606222 -0.0007338471 -0.0011275159 0.0033725258 0.004672203 -0.004850925 -0.0042665317 -0.0019373393 0.004411766 -0.00279022 -0.0007471049 7.9573314e-05 0.00069710246 -0.0028761146 0.00015542078 -0.003040148 -0.0029680822 -0.00089562987 0.0012434087 -0.0041069095 0.0024032104 0.0030993372 0.0033886216 -0.0030190893 0.0026472143 0.0026575937 -0.0033401495 -0.001085363 0.0017124144 -0.0028502587 0.0006683535 0.0010556875 0.0022904903 0.003846943 -0.0041836626 -0.0016477142 0.00081519794 0.0015866257 -0.0024236983 -0.003869348 0.0008562641 0.0041377326 -0.0047341133 -0.0017002919 -0.0030055426 0.004575454 -0.004573815 0.0006941699 -0.0012651809 0.003375472 -0.0015056514 -0.0024405215 0.0036397271 6.422555e-05 -0.0030768577 0.004381652 0.0032098081 -0.0032545922 0.004817075 0.00016821058 0.0033063148 -0.0019912093 -0.00067136175 0.0043371134 -0.003049141 0.0016424484 0.0022252589 0.0044424627 0.0026467084 -0.00021346315 -0.003623989 0.004828319 7.21335e-05 0.0016190292 0.002275899 0.0027918601 0.0040340465 -0.0022963695 0.004368293 -0.0013050494 0.0042479835 0.0022067695 -0.00011914425 -0.003944869 0.0014408621
d -0.00093180453 0.00051973126 0.00030030977 -0.0028317603 -0.0021295971 0.000923958 -0.00092436856 -0.0020476405 0.0016669055 -0.0035723993 0.0032694747 0.000986169 -0.0020374223 0.0040176366 0.0036352465 0.001034944 -0.0033122941 0.0032230434 0.00071131834 -0.0028026989 -0.0021658852 -0.0002690345 -0.0025407625 -0.0021774853 0.002006541 -0.0044811694 0.0008593446 0.001575818 -0.004316129 0.0006441704 -0.00017793755 0.004315583 -0.0009610684 -0.004068339 0.0027149015 -0.0018043004 0.0014253983 0.0022207089 0.0037840654 -0.0049236612 -0.0029204874 -0.0043577724 -0.00019266503 -0.0015022376 -0.002883269 2.0559835e-05 0.0015664819 -0.0018717124 -0.0010013885 0.00048660577 0.004953237 -0.0047384193 -0.0018017422 -0.0046207346 -0.0013694026 -0.00017919464 0.0043402906 -0.0029889683 -0.0012076345 0.004018384 -0.004118477 -0.00046460505 0.00029088548 -0.0024823956 -0.0016718472 -0.0016772045 -0.0022363872 -0.0020641934 -0.004267668 -0.0040513193 -0.0016319194 -0.0049777403 0.0049351067 -0.0018749601 -0.0014362611 0.0031166177 0.002896753 0.0039722687 0.0012220466 -0.0014968776 0.0036999183 2.1988115e-05 0.00054277555 0.0034666786 -0.0030115275 -0.0019661575 -0.004058138 -0.0036409236 -0.00039689356 0.0012814152 -0.003395719 0.00047257045 0.0037072634 -0.00279178 -0.004182034 -0.004972915 0.0039472724 0.002131152 0.003595119 0.00029081226
